Language model created by QuickLM on Wed Jul 18 17:49:07 EDT 2018
Copyright (c) 1996-2010 Carnegie Mellon University and Alexander I. Rudnicky

The model is in standard ARPA format, designed by Doug Paul while he was at MITRE.

The code that was used to produce this language model is available in Open Source.
Please visit http://www.speech.cs.cmu.edu/tools/ for more information

The (fixed) discount mass is 0.5. The backoffs are computed using the ratio method.
This model based on a corpus of 10 sentences and 16 words

\data\
ngram 1=16
ngram 2=24
ngram 3=15

\1-grams:
-0.8451 </s> -0.3010
-0.8451 <s> -0.2341
-1.8451 CHANGE -0.2948
-1.8451 DOWN -0.2341
-1.8451 FORECAST -0.2341
-1.8451 HELP -0.2341
-1.8451 MUSIC -0.2341
-1.8451 NEED -0.2948
-1.8451 PLAY -0.2948
-1.8451 SHUT -0.2948
-1.8451 TIME -0.2341
-1.8451 TODAY -0.2341
-1.8451 TOMORROW -0.2341
-1.8451 VOICE -0.2341
-1.5441 WEATHER -0.2268
-1.8451 WIKI -0.2341

\2-grams:
-1.3010 <s> CHANGE 0.0000
-1.3010 <s> NEED 0.0000
-1.3010 <s> PLAY 0.0000
-1.3010 <s> SHUT 0.0000
-1.3010 <s> TIME 0.0000
-1.3010 <s> TODAY 0.0000
-1.3010 <s> TOMORROW 0.0000
-1.0000 <s> WEATHER 0.0000
-1.3010 <s> WIKI 0.0000
-0.3010 CHANGE VOICE 0.0000
-0.3010 DOWN </s> -0.3010
-0.3010 FORECAST </s> -0.3010
-0.3010 HELP </s> -0.3010
-0.3010 MUSIC </s> -0.3010
-0.3010 NEED HELP 0.0000
-0.3010 PLAY MUSIC 0.0000
-0.3010 SHUT DOWN 0.0000
-0.3010 TIME </s> -0.3010
-0.3010 TODAY </s> -0.3010
-0.3010 TOMORROW </s> -0.3010
-0.3010 VOICE </s> -0.3010
-0.6021 WEATHER </s> -0.3010
-0.6021 WEATHER FORECAST 0.0000
-0.3010 WIKI </s> -0.3010

\3-grams:
-0.3010 <s> CHANGE VOICE
-0.3010 <s> NEED HELP
-0.3010 <s> PLAY MUSIC
-0.3010 <s> SHUT DOWN
-0.3010 <s> TIME </s>
-0.3010 <s> TODAY </s>
-0.3010 <s> TOMORROW </s>
-0.6021 <s> WEATHER </s>
-0.6021 <s> WEATHER FORECAST
-0.3010 <s> WIKI </s>
-0.3010 CHANGE VOICE </s>
-0.3010 NEED HELP </s>
-0.3010 PLAY MUSIC </s>
-0.3010 SHUT DOWN </s>
-0.3010 WEATHER FORECAST </s>

\end\
