Language model created by QuickLM on Tue Jul  3 18:31:53 EDT 2018
Copyright (c) 1996-2010 Carnegie Mellon University and Alexander I. Rudnicky

The model is in standard ARPA format, designed by Doug Paul while he was at MITRE.

The code that was used to produce this language model is available in Open Source.
Please visit http://www.speech.cs.cmu.edu/tools/ for more information

The (fixed) discount mass is 0.5. The backoffs are computed using the ratio method.
This model based on a corpus of 37 sentences and 35 words

\data\
ngram 1=35
ngram 2=69
ngram 3=60

\1-grams:
-0.8912 </s> -0.3010
-0.8912 <s> -0.2326
-2.4594 ABORT -0.2413
-2.4594 CANCEL -0.2413
-2.4594 CONTINUE -0.2413
-2.4594 DOWN -0.2413
-2.1584 FOR -0.2888
-1.7604 FORECAST -0.2237
-2.4594 HALT -0.2413
-2.1584 HELP -0.2378
-2.4594 HOW -0.2934
-1.7604 IS -0.2396
-2.4594 IT -0.2413
-2.4594 KILL -0.2413
-2.1584 ME -0.2413
-2.1584 MUSIC -0.2413
-2.4594 NOW -0.2413
-2.4594 OFF -0.2413
-2.4594 PAUSE -0.2413
-2.1584 PLAY -0.2378
-2.4594 RESUME -0.2413
-2.4594 SHUT -0.2995
-2.1584 START -0.2378
-2.1584 STOP -0.2396
-2.4594 TELL -0.2980
-1.9823 THE -0.2841
-1.9823 TIME -0.2326
-1.8573 TODAY -0.2413
-1.8573 TOMORROW -0.2413
-2.4594 TURN -0.2995
-1.4180 WEATHER -0.2182
-1.9823 WHAT -0.2888
-2.4594 WHERE -0.2934
-2.4594 WHO -0.2934
-2.4594 WIKI -0.2413

\2-grams:
-1.8692 <s> ABORT 0.0000
-1.8692 <s> CANCEL 0.0000
-1.8692 <s> CONTINUE 0.0000
-1.8692 <s> HALT 0.0000
-1.5682 <s> HELP 0.0000
-1.8692 <s> HOW 0.0000
-1.8692 <s> KILL 0.0000
-1.8692 <s> PAUSE 0.0000
-1.5682 <s> PLAY 0.0000
-1.8692 <s> RESUME 0.0000
-1.8692 <s> SHUT 0.0000
-1.5682 <s> START 0.0000
-1.5682 <s> STOP 0.0000
-1.8692 <s> TELL 0.0000
-1.3921 <s> THE 0.0000
-1.8692 <s> TIME -0.1249
-1.8692 <s> TURN 0.0000
-0.9661 <s> WEATHER 0.0000
-1.3921 <s> WHAT 0.0000
-1.8692 <s> WHERE 0.0000
-1.8692 <s> WHO 0.0000
-1.8692 <s> WIKI 0.0000
-0.3010 ABORT </s> -0.3010
-0.3010 CANCEL </s> -0.3010
-0.3010 CONTINUE </s> -0.3010
-0.3010 DOWN </s> -0.3010
-0.6021 FOR TODAY 0.0000
-0.6021 FOR TOMORROW 0.0000
-1.0000 FORECAST </s> -0.3010
-0.6990 FORECAST FOR 0.0000
-1.0000 FORECAST TODAY 0.0000
-1.0000 FORECAST TOMORROW 0.0000
-0.3010 HALT </s> -0.3010
-0.6021 HELP </s> -0.3010
-0.6021 HELP ME 0.0000
-0.3010 HOW IS -0.0792
-0.3979 IS </s> -0.3010
-1.0000 IS IT 0.0000
-0.3010 IT </s> -0.3010
-0.3010 KILL </s> -0.3010
-0.3010 ME </s> -0.3010
-0.3010 MUSIC </s> -0.3010
-0.3010 NOW </s> -0.3010
-0.3010 OFF </s> -0.3010
-0.3010 PAUSE </s> -0.3010
-0.6021 PLAY </s> -0.3010
-0.6021 PLAY MUSIC 0.0000
-0.3010 RESUME </s> -0.3010
-0.3010 SHUT DOWN 0.0000
-0.6021 START </s> -0.3010
-0.6021 START MUSIC 0.0000
-0.6021 STOP </s> -0.3010
-0.6021 STOP NOW 0.0000
-0.3010 TELL ME 0.0000
-0.3010 THE WEATHER -0.1627
-0.4771 TIME </s> -0.3010
-0.7782 TIME IS -0.2553
-0.3010 TODAY </s> -0.3010
-0.3010 TOMORROW </s> -0.3010
-0.3010 TURN OFF 0.0000
-1.0414 WEATHER </s> -0.3010
-0.6435 WEATHER FORECAST 0.0000
-1.0414 WEATHER TODAY 0.0000
-1.0414 WEATHER TOMORROW 0.0000
-0.7782 WHAT IS -0.0792
-0.4771 WHAT TIME 0.0000
-0.3010 WHERE IS -0.0792
-0.3010 WHO IS -0.0792
-0.3010 WIKI </s> -0.3010

\3-grams:
-0.3010 <s> ABORT </s>
-0.3010 <s> CANCEL </s>
-0.3010 <s> CONTINUE </s>
-0.3010 <s> HALT </s>
-0.6021 <s> HELP </s>
-0.6021 <s> HELP ME
-0.3010 <s> HOW IS
-0.3010 <s> KILL </s>
-0.3010 <s> PAUSE </s>
-0.6021 <s> PLAY </s>
-0.6021 <s> PLAY MUSIC
-0.3010 <s> RESUME </s>
-0.3010 <s> SHUT DOWN
-0.6021 <s> START </s>
-0.6021 <s> START MUSIC
-0.6021 <s> STOP </s>
-0.6021 <s> STOP NOW
-0.3010 <s> TELL ME
-0.3010 <s> THE WEATHER
-0.3010 <s> TIME </s>
-0.3010 <s> TURN OFF
-1.2041 <s> WEATHER </s>
-0.5051 <s> WEATHER FORECAST
-1.2041 <s> WEATHER TODAY
-1.2041 <s> WEATHER TOMORROW
-0.7782 <s> WHAT IS
-0.4771 <s> WHAT TIME
-0.3010 <s> WHERE IS
-0.3010 <s> WHO IS
-0.3010 <s> WIKI </s>
-0.3010 FOR TODAY </s>
-0.3010 FOR TOMORROW </s>
-0.6021 FORECAST FOR TODAY
-0.6021 FORECAST FOR TOMORROW
-0.3010 FORECAST TODAY </s>
-0.3010 FORECAST TOMORROW </s>
-0.3010 HELP ME </s>
-0.3010 HOW IS </s>
-0.3010 IS IT </s>
-0.3010 PLAY MUSIC </s>
-0.3010 SHUT DOWN </s>
-0.3010 START MUSIC </s>
-0.3010 STOP NOW </s>
-0.3010 TELL ME </s>
-0.7782 THE WEATHER </s>
-0.7782 THE WEATHER TODAY
-0.7782 THE WEATHER TOMORROW
-0.3010 TIME IS IT
-0.3010 TURN OFF </s>
-1.0000 WEATHER FORECAST </s>
-0.6990 WEATHER FORECAST FOR
-1.0000 WEATHER FORECAST TODAY
-1.0000 WEATHER FORECAST TOMORROW
-0.3010 WEATHER TODAY </s>
-0.3010 WEATHER TOMORROW </s>
-0.3010 WHAT IS </s>
-0.6021 WHAT TIME </s>
-0.6021 WHAT TIME IS
-0.3010 WHERE IS </s>
-0.3010 WHO IS </s>

\end\
